{"rnn_weights":[[-0.05411578,-0.09208049,0.021088,-0.06821099,0.07041204,0.00415468,0.058437258,0.038488857,0.08327769,-0.020368956,0.0975,0.019596687,0.07273757,0.00955271,0.022685142,-0.025016231,-0.05191634,-0.027137306,0.00038696438,-0.035688777,0.09534379,-0.07196176,-0.0068639806,-0.0208335,-0.038169473,-0.063731,-0.04404752,-0.09297559,-0.07823623,-0.072612934,-0.06108656,-0.04443114,-0.052875172,0.027145386,0.09364387,0.038249318,0.0703028,0.040153082,-0.082360424,-0.0289641,-0.051948726,-0.068972684,-0.0708501,-0.039370112,0.099366754,-0.06116849,-0.0017699377,-0.08181712,0.0406931,0.04587292,-0.036887966,0.07535831,-0.09004929,-0.0016769427,0.0020813274,-0.009627844,-0.010334643,0.074346155,-0.040236764,0.04440876,-0.08842266,-0.027012318,-0.009256044,-0.023360688,-0.03894907,0.09858223,-0.04912198,0.015376831,0.033870667,-0.08999217,-0.0696576,-0.09980167,0.065982625,0.09589623,0.051975444,-0.006877507,-0.06048533,0.044091664,-0.06747387,0.010064172],[-0.0592985,-0.03514019,0.007227416,-0.027551096,-0.090513855,0.020401401,0.06350733,-0.082256556,0.08070825,0.026388913,0.0036654987,0.026825441,0.051997386,0.090053745,-0.057258204,-0.051647212,-0.010049297,-0.051006798,-0.09977121,0.05798172,-0.059188094,-0.056748778,-0.014578423,-0.02435983,-0.04405088,-0.014670127,-0.07890215,0.09025291,0.08625068,-0.01935094,-0.01503849,0.04525788,-0.020338714,0.039021254,-0.012222186,0.06243724,-0.093760915,-0.028973142,0.035207808,-0.05513686,0.022081798,-0.04078816,-0.004759131,-0.01969843,0.06335953,-0.01673816,0.026481852,-0.09348489,0.04139222,0.07113416,-0.016676435,-0.041226186,-0.034766983,-0.03760801,0.044648252,0.069405794,0.031451333,0.03748628,0.09908913,-0.024507852,-0.022818951,0.043849476,0.06795057,0.0055590305,-0.050077446,0.03295442,-0.006637317,-0.003797908,0.09305732,-0.047537714,0.07013935,-0.004903728,0.08190921,-0.06717191,0.006291247,0.0699172,-0.019353665,0.06519445,0.083811425,0.003148155],[0.009705445,0.059329685,-0.007710059,-0.067648694,-0.011513574,0.010854242,-0.0491187,0.030914446,-0.010432288,0.022305489,0.08255418,0.02119576,-0.07909371,0.07101733,-0.059677698,0.09837217,0.093639776,-0.006303932,0.027302783,-0.075069495,0.02044722,-0.014856027,0.027614923,-0.00013950466,-0.0027119364,0.016513877,0.05658313,0.015435723,-0.0330695,0.041814465,0.039921813,0.006930448,-0.09285656,0.07845056,-0.04984481,0.007237548,-0.00014886537,-0.011848489,-0.017836088,0.05143343,0.021293325,0.0060820035,0.06310572,-0.012617874,-0.029225567,-0.07017914,0.086559325,-0.0061872117,-0.019960465,0.05867014,-0.04602991,-0.0011842671,-0.081318304,-0.023318436,-0.07859757,0.08730434,-0.06979783,0.09619759,-0.044979073,-0.037325017,0.018918077,0.03292025,0.024264058,-0.005021867,0.012251822,0.01826283,-0.050748568,0.056056436,0.09856705,-0.065890126,-0.021161593,-0.09164019,0.07814169,-0.029435158,0.06275745,0.08780417,-0.030675948,0.012594551,0.022338646,-0.010771034],[0.072553396,0.083324276,0.083725095,0.012757736,-0.05141631,0.0128574055,-0.022940606,-0.09042926,0.05450812,0.0316156,-0.030745365,0.00057765574,-0.091752954,0.06142453,-0.04715758,-0.026547981,0.09590252,-0.07510438,-0.08219558,0.031718213,-0.013964045,0.087686725,-0.057223473,0.038306132,-0.051702756,-0.08417365,-0.01894185,0.05920935,-0.0735288,-0.07004924,-0.075513035,-0.09671974,0.07947778,0.07898851,0.01577957,0.0886713,0.020457437,0.04698516,0.06631854,-0.015597708,0.06435882,-0.021955708,0.060487617,-0.03117745,0.05635789,0.084111705,-0.027697124,0.021286402,-0.062172763,-0.0717311,0.035813585,-0.08765795,-0.060786724,0.05278041,-0.0099301785,0.09665826,0.044342462,0.043675672,-0.017160874,0.010056717,-0.005361585,-0.08762476,-0.0971379,0.07920708,0.056140777,0.003974523,0.04837765,0.09368218,-0.075437054,-0.019915516,-0.013417334,-0.041588858,0.0024314446,0.09880924,-0.087968804,-0.034739647,0.017638594,-0.04763378,0.02876384,-0.06923034],[-0.016324693,-0.006639753,-0.025887806,0.07436962,-0.027818112,0.015985576,-0.09244765,0.09342701,-0.06577415,-0.026504137,0.023052335,0.070521355,0.024660647,0.020790689,0.06520187,0.029392073,0.053278953,0.0024819344,0.09018616,-0.035566036,0.09279024,-0.02820866,0.0071754167,-0.017219573,0.09314021,-0.054552406,-0.010293216,-0.024756478,0.048903078,0.08669368,-0.08252835,0.09577589,0.09969043,0.09266873,-0.068954796,0.002854148,0.02097345,-0.04592282,-0.0802364,-0.051750027,-0.03435613,-0.06007162,0.066117495,-0.023149949,0.017288683,-0.059913788,0.040296704,-0.026144113,0.058437478,0.098851435,0.07229246,0.0629342,0.060216907,-0.030195337,0.08619178,-0.08802583,-0.07230559,-0.05974201,0.0516417,-0.019976059,0.094322264,0.04664544,-0.012975307,-0.089418426,0.08789691,0.018890988,0.088511825,0.013371157,-0.09604216,0.09185328,-0.08415956,-0.0059674326,-0.0149499625,-0.06284175,0.09130946,-0.04353386,0.09729677,-0.08211762,-0.0029250656,0.06557693],[-0.05783821,-0.019867029,0.047235895,-0.0846411,-0.043083604,-0.020094397,-0.0035958968,-0.0673511,0.04153417,-0.0352726,-0.07472307,0.041329797,0.056259118,0.0807003,0.055816513,0.05744589,-0.035777166,0.09620311,0.03685605,0.06711589,-0.045794643,-0.011258701,-0.067584954,0.04233861,0.024454147,-0.014662788,0.099392034,-0.080409475,0.029545143,-0.08760398,0.04827697,-0.00527709,0.0189021,-0.091584034,-0.09510057,0.037968177,0.06813486,0.088480726,0.057700172,-0.055887092,-0.09320363,-0.088786915,-0.009030996,0.022407454,0.08724558,-0.08035749,0.04450558,0.051110204,-0.00038472775,0.0418031,0.028821317,0.07975004,0.0035511977,0.003129166,0.05313679,0.049220677,0.061821554,0.00661343,0.09036644,0.005783735,-0.090783745,-0.047533292,0.05426275,0.043086145,-0.046762474,-0.013737616,-0.043627195,0.05442245,0.050553128,-0.07217403,-0.077661246,-0.07336757,-0.023027875,-0.08779676,-0.008250334,-0.09876665,-0.08651151,-0.047696624,0.07769086,0.0022047327],[-0.036246974,-0.06133362,0.07728523,0.029895019,-0.07624496,-0.041704852,0.07472128,0.09468689,-0.021638058,0.035489842,0.041599736,0.057134386,-0.08067552,-0.069755994,0.050886195,-0.021537757,-0.058554772,-0.019105893,0.025831591,0.04824627,0.026039977,0.014529606,-0.06083978,-0.022422843,-0.07780861,0.010487682,0.062977515,-0.06577839,-0.0014250054,-0.083288796,-0.05802851,0.019495964,0.078779645,0.029920325,-0.020863622,-0.0031592455,-0.033086818,0.0025191659,0.019115193,-0.061717067,-0.049801264,0.013289398,-0.019528208,0.07927901,0.05061975,-0.08153246,-0.017756477,-0.05320381,-0.09789762,-0.057534676,-0.09473401,-0.053896252,0.04221918,0.09470398,-0.02134487,-0.08645885,-0.020017417,-0.08247448,-0.06682374,-0.045632567,-0.0019502473,0.09406229,-0.061603945,-0.03302804,0.05850291,0.06033131,0.031047005,-0.017103624,0.009667629,0.0028144545,-0.0069948593,0.05088883,-0.06245353,0.015333749,-0.039131403,0.073446274,0.06808833,-0.026768453,0.08361334,0.03617587],[-0.003836373,0.08286048,0.010016534,0.05729499,-0.028489238,-0.039069206,0.098171175,0.083172776,0.031899408,-0.0012767764,0.06792568,0.07526934,-0.09406604,-0.09262737,0.077361695,0.02035878,-0.02083697,-0.09766715,0.06456991,-0.0292164,-0.09845773,0.0091815945,0.078710526,-0.053037245,0.094921984,-0.009870903,-0.023955055,0.075833805,0.0768888,-0.018460141,0.02558159,0.06753731,0.019598402,-0.056913752,-0.022412986,0.049510587,0.076159075,-0.009418616,-0.097166575,0.046372503,0.033012528,-0.03509904,0.08848868,0.017947953,-0.048582293,-0.009683645,-0.001368344,0.09551006,0.0028125623,0.023177521,-0.04465209,-0.032187883,-0.0026044347,-0.033793617,0.08368423,-0.06289496,0.07447312,-0.04076709,-0.059291318,0.011398321,0.020495841,-0.049057405,0.08823966,-0.029325087,-0.056893453,0.039261024,0.07325801,0.0095782755,-0.00978349,-0.08370822,0.07100287,-0.0779428,0.057039216,-0.02035863,0.016277507,-0.0015775812,-0.07803339,-0.018808492,0.045897465,0.02413478],[0.059933867,0.05538624,0.06480341,0.023620207,0.056234777,-0.0918227,-0.01905419,0.016740723,0.04838109,0.011709429,0.08929852,-0.04192282,-0.031414002,-0.03526531,0.024616571,0.03422206,-0.0721122,-0.011659603,-0.0015896448,0.08745454,0.044425312,0.03733887,-0.033417515,-0.016977362,0.0685849,-0.047973245,0.010207943,-0.005753445,-0.0768451,-0.07549136,-0.018196583,-0.067173555,-0.098671734,0.01441539,0.003027871,-0.04957312,0.030945135,0.06762467,-0.008041518,0.046782598,-0.041856658,0.09854521,-0.09398357,-0.049126342,0.0218451,0.016751425,-0.09225201,-0.015714895,-0.004940311,0.06162814,-0.076880604,-0.060660876,0.027212402,-0.009755137,0.069875695,0.083954215,-0.09557508,-0.0019119191,0.09310703,-0.022565933,0.06293191,-0.032126993,-0.09784917,0.07972054,0.060374063,-0.04802357,0.07166821,-0.05488319,0.076328754,-0.01089509,0.03810723,0.083271645,-0.08128617,-0.036219954,0.03477335,0.012210977,0.038487367,0.06771221,-0.061963107,0.07150512],[-0.08603512,-0.09499533,-0.08652252,-0.04050178,0.01632678,0.07786686,0.010891347,-0.012953857,0.027751327,-0.04882102,0.026696876,0.04920989,0.041053645,-0.077426516,0.022720473,0.082680725,0.088299274,0.05837943,-0.01440357,0.05439635,-0.094817266,-0.08888016,-0.009196929,-0.013825633,0.09225734,0.098068915,-0.065601274,0.08058313,-0.06983927,-0.061573755,0.08218164,0.04328975,-0.07530402,-0.09271223,0.07997363,-0.020961938,-0.05427997,-0.020040998,0.019669352,0.041333362,0.011664523,0.016044369,-0.09852184,-0.016874295,0.0020029529,0.019143479,-0.032236926,0.02606314,-0.028844709,-0.009061052,-0.090063274,0.07376469,-0.07996983,-0.056784324,0.013271026,0.04076567,-0.043905936,-0.092424616,-0.053335454,0.04166966,-0.009005887,-0.099914424,-0.0025367676,-0.029887658,0.06622882,-0.045812905,-0.09745759,-0.03246567,-0.033353813,0.03692967,-0.09760756,0.08888731,-0.08419647,0.006352953,-0.017360352,0.07915184,-0.050907914,-0.0771458,-0.009998185,-0.054074194],[0.057045307,0.042804252,-0.025707487,0.06576436,-0.012147693,0.026743462,-0.09822668,-0.081775695,0.051199064,-0.043218803,0.030827075,-0.0526657,-0.06663083,0.045957036,0.006504747,0.07071365,-0.0325953,0.04663417,-0.058040775,0.05235449,-0.012997712,-0.07034085,0.07226843,-0.050663117,-0.05945575,0.015309698,-0.0018350342,0.0389206,0.040323257,-0.07637275,-0.019669823,0.08587384,-0.053279363,-0.011096426,0.035377346,0.009118045,0.031465154,-0.027433457,-0.08480698,-0.061301935,0.03896751,-0.0775836,0.08596484,0.0962471,0.09918265,0.02972238,-0.028755583,0.09720866,-0.052349634,0.06409139,-0.06807753,-0.043420546,0.050528932,-0.07800317,-0.07744503,-0.07890835,-0.07418831,0.05908547,0.0924232,0.066377394,0.07774255,0.025237657,-0.057220306,0.031543035,-0.016765932,-0.09785894,0.023326728,-0.07066572,0.045746535,0.095624514,-0.0902925,-0.059909087,-0.09441874,-0.030786462,0.01184368,-0.0512617,0.07092584,-0.022519737,-0.051377658,-0.07726278],[0.07346912,-0.05766984,-0.03220356,-0.03723232,-0.0070439638,-0.00033908564,-0.06053416,-0.099883415,0.062307164,-0.02118168,0.045339093,0.026642246,-0.07888412,0.07553207,-0.09192527,-0.07191994,-0.07614396,0.062224034,0.023228776,0.0028122764,-0.033049498,-0.06708691,-0.075355224,0.059163943,-0.025916569,0.024287924,-0.051801633,0.04762468,0.059816092,0.015174975,-0.09983743,0.020318337,0.04064218,-0.02755367,-0.09505054,0.010172838,0.034998786,-0.031242171,0.08650428,0.049549237,0.054449532,-0.059181627,-0.065024436,0.095294856,-0.061830524,-0.041266333,-0.05846528,-0.08654727,0.084825024,0.05556669,0.046694756,0.049253505,0.04203673,-0.09805713,-0.09752087,0.088957295,0.01597461,0.041353043,0.055459242,0.051282816,0.074839965,-0.08790889,0.009167558,-0.08218134,-0.04186047,-0.020721588,-0.080521114,0.047403704,-0.038411077,-0.039728004,0.016219027,-0.026695112,0.029271796,0.010349512,-0.04634919,0.06454694,-0.08753232,0.054380603,0.019085335,-0.0016793221],[0.07799515,0.040770527,0.055525113,0.030877408,0.027837249,-0.0062383437,0.080200374,0.055034943,0.06884642,0.03878489,0.08621524,0.06619975,0.008099637,0.067323126,0.095866986,0.041548945,0.043951362,-0.09136357,0.057805505,0.011134009,-0.09689764,-0.09899876,0.062388346,0.00050632656,0.002090462,-0.0010972922,0.051245175,-0.072725385,0.097553685,0.034105632,0.085687585,0.07715559,-0.028540574,0.073072314,0.08508318,-0.01530326,-0.03395919,-0.027657637,-0.070575945,-0.03741587,-0.018722521,-0.073454194,0.062003944,-0.016924243,0.058055237,0.070731014,0.08557917,0.051541533,0.081005245,-0.009588129,0.01871561,-0.052902307,-0.024529146,0.03861815,-0.023464844,-0.07865119,0.029590642,0.00043479027,0.052022096,-0.017603608,-0.008436112,0.054144002,0.09594675,-0.050551444,0.059963834,0.09029118,0.09045844,0.028029274,0.09416899,-0.04129015,-0.081051745,0.045782544,0.004471734,0.022702672,0.03969173,0.08034629,0.078514464,-0.026506409,-0.08548074,-0.044697788],[-0.009402448,0.07462553,-0.043321256,-0.0014978393,0.015949266,-0.01747048,0.07871576,0.055467106,-0.059084464,-0.014878847,-0.005783775,0.05385522,0.08070301,-0.037353665,0.066667,0.043232895,-0.012934348,-0.059921388,0.0010476,-0.02720963,-0.069850385,-0.026606278,-0.062061556,-0.023154981,0.09035847,-0.010817544,0.02500131,-0.07485792,0.093492165,0.093476124,-0.021062568,0.039285734,0.08856168,0.00837925,0.060704075,-0.050692875,0.07525112,0.081730425,0.05677639,-0.090675816,-0.070268184,0.03622448,0.052626867,0.02879009,0.028945355,-0.019398605,-0.020149268,0.09648196,-0.020946877,-0.050411828,0.017722359,-0.044072263,0.089080654,-0.049692087,0.065741085,-0.06356818,0.09344234,-0.040818207,0.08027139,0.019657282,0.027835192,0.051210724,-0.09954154,0.09026088,-0.086623386,0.055293407,0.0034587113,-0.07347391,0.019406596,-0.08088282,0.012199885,0.053656332,0.079159096,-0.0098365545,0.056873918,-0.06836646,0.088091575,0.09510126,-0.09418274,0.04651732],[0.08862175,-0.0035254103,-0.024607379,0.048341613,0.071099535,0.059148524,0.07512568,-0.03653951,0.008990601,0.0862263,0.07671304,0.054405626,0.06447717,-0.09566544,0.050663095,-0.029386183,0.021485852,0.06540022,0.080836885,0.040534843,-0.09016696,0.052291755,0.009824962,-0.041215163,0.09708115,-0.014976756,0.0026068976,-0.06808771,0.04759331,-0.0819671,0.010593958,0.049140617,0.021533191,-0.06322224,-0.07410235,-0.018014727,0.013357048,-0.072688684,0.0049532484,-0.02143651,0.030072635,0.06894319,-0.027801758,-0.047455028,0.06868902,-0.08304716,-0.038836803,-0.02250873,-0.07472171,0.029689098,0.08280796,0.054143008,0.09723354,-0.0061429325,0.09649683,-0.07898087,0.046839867,0.0781336,-0.015119959,-0.015282029,-0.05804337,-0.08968601,0.00095306186,-0.072870694,0.029698147,0.055628594,-0.068330325,-0.07539566,0.07074623,0.09616863,0.0491679,0.048496746,-0.0059654936,0.09541045,-0.018655755,-0.07070578,-0.024092376,-0.016176999,0.098173566,-0.0918298],[-0.05146397,0.005695905,0.05598538,-0.057251547,0.09764764,0.085395955,0.03660269,0.044649176,-0.05677433,0.028110176,-0.028405853,0.0332216,-0.07073664,0.061563008,0.09397664,-0.0052715302,0.01787291,-0.060029082,-0.08165063,-0.004693334,-0.016020212,-0.07540648,-0.01952873,-0.06540213,-0.089236185,0.04407864,0.023538329,-0.071775384,-0.018375166,-0.018295156,0.041360997,0.054965064,0.08236968,0.061027706,0.02563236,0.03538658,-0.08939418,0.016753873,-0.0017095747,-0.07840196,0.03598498,0.008830925,0.005627813,0.011220236,0.020957349,-0.04018298,-0.0059256703,-0.09539685,-0.06557514,-0.0076803705,-0.014917859,0.08353651,-0.030974077,0.05733401,-0.009510368,0.035394695,0.026704943,0.033059414,0.04038551,0.057223953,-0.06403995,-0.09985635,0.037640013,-0.036784966,0.033248257,-0.09280128,0.033984426,0.01439591,-0.027786402,-0.03568321,-0.09800467,0.007607242,0.012943052,-0.025172874,-0.081208274,0.06809394,0.039071478,0.054483674,-0.027487045,-0.015216468]],"rnn_discriminator":[[0.74088544,9.605973,13.082272,6.2180114,24.111761,-0.036527883,5.5040846,16.4431,7.843056,44.462605,26.159184,19.263193,-0.6139308,1.6080457,2.7511604,5.943601],[0.85906756,9.631909,13.217682,6.2668586,24.18001,-0.094081715,5.4343853,16.368866,7.8491435,44.367134,26.181238,19.39592,-0.50960124,1.5893646,2.7180483,5.9103427],[0.8654886,9.612341,13.099448,6.404308,24.147615,0.07711176,5.478028,16.502224,7.855706,44.33045,26.291454,19.307673,-0.45729196,1.4846066,2.6405504,5.931761],[0.735883,9.487205,13.096051,6.2956853,24.176208,0.0074337064,5.554139,16.450615,7.790793,44.352974,26.327023,19.420216,-0.5009065,1.4435698,2.7061193,5.8903503],[0.8372371,9.524966,13.1008,6.299253,24.111067,0.06954699,5.4411864,16.366243,7.7850137,44.45262,26.199245,19.302563,-0.5308454,1.5496871,2.71646,5.8483253],[0.8560421,9.651684,13.181733,6.278831,24.121859,-0.09470762,5.560013,16.475502,7.9093165,44.453262,26.143974,19.456284,-0.5753252,1.5794383,2.7005427,5.9523773],[0.7148128,9.555574,13.13428,6.3978662,24.289246,0.015254595,5.530662,16.388142,7.9196105,44.310062,26.263416,19.3081,-0.55991685,1.4906971,2.7631767,5.8882236],[0.87444603,9.467451,13.066578,6.2540784,24.162004,-0.11496651,5.432449,16.433233,7.8768535,44.465145,26.239532,19.46071,-0.51443,1.4997318,2.5920882,5.8565116],[0.76927906,9.583183,13.15453,6.3307357,24.165972,-0.012832792,5.450467,16.543772,7.90544,44.49941,26.301598,19.33991,-0.54331464,1.6304401,2.6057086,5.8613467],[0.7259262,9.561274,13.166795,6.3298335,24.22515,-0.11132402,5.5941815,16.466408,7.9174614,44.363132,26.286095,19.269575,-0.44077903,1.5335673,2.6078973,5.916182],[0.84192544,9.657054,13.223533,6.3959284,24.238401,-0.06561673,5.4381385,16.461182,7.8803096,44.344574,26.263327,19.314484,-0.55384105,1.492773,2.5834002,5.921827],[0.8924773,9.644835,13.100326,6.3958516,24.30418,-0.112326205,5.4807982,16.373327,7.7730103,44.339577,26.196909,19.268827,-0.44747713,1.4594502,2.756143,6.0063252],[0.8531208,9.47775,13.138109,6.2730217,24.169369,0.039825074,5.439996,16.539854,7.906748,44.396946,26.190895,19.314936,-0.58875525,1.5029788,2.6897078,5.9758267],[0.8824296,9.655061,13.124865,6.3268723,24.112703,0.033287298,5.4320083,16.486698,7.8360634,44.330112,26.222126,19.445528,-0.5541906,1.4413642,2.6239712,5.8440456],[0.9007773,9.655627,13.159433,6.323654,24.255104,0.032560103,5.433894,16.523983,7.9340215,44.428417,26.162376,19.427435,-0.45325518,1.4993376,2.6586902,5.9991064],[0.791008,9.652461,13.114029,6.299642,24.156961,-0.073707186,5.4338317,16.438532,7.806109,44.326454,26.210768,19.421398,-0.52521175,1.6148477,2.6348634,5.930915]],"cnn_filters":[[[-0.022880286,0.035653733,0.06844297],[0.022659417,0.07056792,0.0032382258],[-0.026005859,0.033084836,-0.03952018]]],"cnn_discriminator":[[[11.863685,11.743298,11.754011],[11.739941,11.750978,11.686501],[11.861478,11.840476,11.798734]]],"lstm_weights":[[-0.017839422,-0.0061513335,-0.090708725,-0.06525505,0.028328314,0.05900076,0.033729255,0.06391913,0.09515267,-0.010631252,-0.024882488,0.037665386,-0.008052589,-0.03094618,-0.07857103,0.08088348,-0.04606867,-0.05117541,-0.06833386,0.072680406,-0.08286247,-0.083397165,-0.022066146,-0.005992316,0.0030679437,-0.023157828,-0.0648695,0.036821336,-0.058655005,0.042571124,0.057858042,0.05263198,-0.024394307,0.050662823,0.0693344,-0.070785426,0.000053289637,0.01985866,-0.047388483,-0.045804627,-0.10098625,0.0053737834,0.05789801,-0.10163127,0.067419775,0.09019031,-0.05020304,-0.058625337,-0.06591013,0.058707293,-0.07997121,-0.06681065,0.016657805,-0.0009073026,-0.052614834,-0.06738415,-0.013237899,-0.05756947,0.0068546636,0.06873856,-0.03145051,0.011866584,0.06333888,-0.09203106,0.045650005,0.0020947303,0.027082233,0.09632397,0.004205792,0.02916388,0.0638658,0.067991674,-0.049316574,0.03472576,0.0740684,-0.081332766,0.032812618,0.004863897,0.008697635,0.045801245],[0.0027373442,-0.030102203,0.03476663,0.060885027,-0.0675499,0.0719188,-0.03882078,-0.088962615,-0.09697857,-0.008755352,0.053159572,0.0061678607,0.047223367,0.068428345,0.049551547,0.059044488,0.08932296,-0.01776651,-0.08658861,-0.0528054,0.0656484,0.059420183,-0.08646153,-0.045498587,-0.05912347,0.04576191,0.012145259,-0.072174884,0.07736462,-0.065876245,0.03354118,0.030194363,-0.060514458,0.05666513,0.036247354,0.020803895,-0.014566461,-0.07954509,-0.102565885,0.08189446,-0.045275804,0.09516238,-0.026029589,-0.05177906,0.035289835,0.05702073,-0.07066715,-0.0755728,-0.055350106,0.06882391,-0.03434894,0.016314937,-0.011640096,-0.092610076,0.106261455,-0.098155476,-0.01951527,0.0912789,0.039269608,0.01077449,0.017271066,-0.10229456,0.03986257,-0.07321833,0.012520134,-0.010020128,0.09718312,-0.025335886,0.017183393,0.09459141,-0.08840772,0.0961594,-0.055760004,0.040302638,0.0033393842,-0.058950976,-0.038964164,0.011267388,0.08768916,-0.04245023],[0.004667842,-0.020510549,0.05953598,0.016959626,-0.086541206,-0.062393613,-0.008649674,-0.01733423,0.01423099,-0.09557572,0.093747154,0.005821148,0.04049758,-0.033274952,0.04096812,-0.07043032,0.08588699,-0.06288033,-0.035869975,0.07803791,-0.09327921,-0.004692623,0.06969985,0.01941083,-0.023523882,0.06963369,-0.062811226,-0.097975686,-0.023059327,-0.01969251,-0.04781417,-0.068438336,0.025105413,-0.06338797,-0.09976545,0.09985531,-0.0064018928,-0.085232705,-0.013497137,0.07048465,-0.0014777452,0.023334183,0.082478076,-0.039151967,0.0935185,-0.036712956,-0.08147752,0.084493965,0.0010710359,0.030962091,0.06090569,0.010978599,-0.025273511,-0.04368262,-0.07291115,-0.016163455,0.04278634,0.04196247,-0.097931124,-0.0379612,0.08528155,0.028979965,-0.040833253,0.09192492,0.08139649,-0.030767174,0.020041874,-0.023523591,0.016047232,0.080138564,-0.022035781,-0.008793905,0.062211443,-0.067416005,-0.08402758,0.0181689,-0.00615895,0.06574467,0.030615479,0.05445286],[0.10057975,-0.028335327,0.07153925,0.09571445,0.024566598,-0.006705502,0.014715519,-0.01275859,-0.06591017,-0.09879928,-0.102943115,-0.05542975,-0.009236836,0.0400843,0.07869494,-0.035398692,-0.007971937,0.0073975427,-0.007053465,-0.038916588,-0.038070466,-0.04566202,-0.06301282,0.058825213,-0.053632047,0.08637954,0.01663323,-0.011162017,-0.01896151,-0.09327168,-0.056992836,-0.092815995,0.05322373,-0.086691715,-0.02851952,0.043023415,0.08099741,-0.0032468634,-0.05385468,0.039113324,-0.06827109,-0.093366265,0.07104468,0.06395959,-0.05583857,-0.030836914,0.039129537,-0.041891377,0.020424165,-0.05094568,0.0111263925,-0.040041994,0.08893224,0.045566246,-0.06109215,0.07933944,-0.09729376,-0.033638034,-0.09344076,0.016127322,-0.045599554,0.032870196,0.10291071,0.0066285483,0.104684666,0.002812914,-0.06394488,-0.07033735,-0.09308227,0.05248578,0.061165597,0.07035412,0.050405174,0.048549224,-0.100240454,-0.030514913,-0.047961984,0.00671252,0.08576524,0.019854551],[-0.055473026,0.025285108,0.0093803145,0.022360422,0.04250059,0.080118746,-0.07408511,-0.028438067,-0.06073289,0.09462805,-0.044769745,0.069307484,0.022420354,0.06500712,-0.09181881,0.07637445,0.078623466,0.10430792,-0.080457635,0.045422174,0.039112378,-0.012960101,-0.059231788,-0.018931767,-0.0727053,0.023730554,-0.008687802,0.037405565,0.01817922,-0.00785217,-0.06086144,0.03974948,0.05684504,0.054547943,0.016832395,0.047068663,0.06960699,-0.05062896,0.01268418,-0.09892161,0.080931254,0.025612012,-0.04583555,0.06824114,-0.004314476,0.09626597,-0.022908466,-0.1037624,0.004544772,-0.018328557,0.021215888,0.048770413,0.01084063,-0.071921706,0.040622402,0.06713853,0.052869495,-0.08303035,0.01657851,0.008758348,0.030048776,-0.09986038,0.020898351,-0.040074646,0.057275757,0.005951576,-0.072653785,0.084441125,0.040939633,-0.07829616,0.04322332,0.08114499,-0.0914417,-0.046836283,-0.09881108,0.027007263,0.04556059,-0.04539663,0.036959156,-0.007991167],[-0.04817352,0.05218075,0.016850682,0.03644247,-0.046915844,-0.015724855,0.0005064861,-0.08028032,0.08634358,-0.07020674,-0.026093416,-0.04154606,0.037282772,-0.054573093,-0.0721539,0.07447741,0.08168135,0.047612775,0.08415077,0.06381756,0.013726707,-0.05926373,0.045115802,-0.016228674,-0.058575153,-0.013404508,0.04032059,0.0016544795,-0.09889615,0.08034891,-0.07051718,-0.035356615,0.008111707,-0.04095217,-0.02122272,-0.09018574,0.041920636,0.08988381,0.050506372,0.08339079,0.06217562,0.0022011918,-0.02304943,0.051441707,-0.03593913,0.014518719,-0.008132925,-0.020605864,-0.039767068,-0.027791988,-0.046501663,-0.09420805,0.009822369,-0.022441363,0.014651952,-0.073668815,0.03975774,-0.073464714,0.017661026,-0.08933124,0.09745094,-0.07111663,-0.06238733,0.08151738,-0.0043236907,0.07748517,0.04023537,0.02029119,-0.015887907,0.0074477834,-0.05165743,0.06844646,0.08297301,0.07420322,-0.00659838,0.018876119,0.033164687,-0.033339802,-0.08332734,-0.027370663],[0.04930298,-0.02010631,0.0723965,0.051856738,-0.07877915,0.049837917,0.014250211,-0.0797902,-0.07545865,0.058037806,-0.04566465,-0.07550695,0.047897898,-0.008863127,-0.07810883,0.07925265,-0.03786869,-0.02102789,0.06250062,0.05769708,0.07270766,0.07234579,-0.025094464,0.016678981,0.056307096,0.00345989,-0.010692499,-0.08159416,-0.102152884,0.087362126,-0.083143644,0.0724776,0.08126281,-0.052758656,-0.003257711,-0.023108613,0.046129066,0.028654525,-0.0748342,-0.027899167,-0.021677902,0.09167214,-0.011627438,0.0047088508,0.0028535784,0.01795898,-0.024485582,0.04086974,0.02342101,0.09161896,0.029400436,-0.08461003,-0.014204166,-0.047328636,-0.028969288,-0.070633754,-0.06144134,-0.072042696,0.074688636,-0.063980885,-0.07133814,-0.09248063,0.0027755352,-0.0097214375,-0.056162886,-0.01955864,0.10318969,0.079120874,-0.017758898,0.10179904,0.09170779,0.06598076,0.07885335,0.06492932,-0.08554509,-0.008009299,0.05899798,0.029612167,-0.06532567,-0.04761934],[-0.079015225,0.032557633,0.02806337,0.03304472,-0.003733783,0.03368187,-0.06776216,0.083463416,0.022088865,0.023522858,0.025860125,0.042714063,-0.03903168,-0.075143844,-0.09680059,-0.083831474,0.0011137929,0.0044089877,-0.035161223,-0.011277749,-0.067816295,-0.034894012,0.0537487,0.006984808,-0.004804541,0.049050074,-0.09986913,-0.07625938,-0.02822824,-0.050520897,-0.0039563566,0.013544466,0.09554173,0.03613511,0.06548919,-0.0038886394,-0.08098201,0.06267535,0.08446405,0.02564724,-0.0565047,-0.036074243,0.0443505,0.06548955,-0.091354296,-0.040435337,-0.05019734,0.011884552,-0.06985584,0.009990375,-0.09220368,0.0073827244,-0.0053310855,-0.018667676,-0.020072108,-0.07984236,-0.080037326,0.05625486,-0.0781332,0.016348261,0.01017235,0.06696395,-0.013600103,-0.060324825,0.07060872,0.03527985,0.09073855,-0.037159916,0.019176334,-0.09193519,0.048741758,-0.07604786,0.10014718,-0.028430391,-0.05838349,0.04388993,0.060835928,-0.0638867,-0.02611718,-0.03317954],[-0.08126654,-0.0044111395,-0.06993629,0.08039957,0.021342076,-0.07629378,0.03709048,-0.076388374,0.034831256,-0.03622437,0.06152122,-0.041912347,0.06848729,0.07321725,0.088158324,-0.07242355,-0.078198835,-0.047556315,-0.03963768,0.08253614,-0.1042479,-0.09779004,-0.056627974,-0.053657725,-0.07661519,0.0115721775,-0.048527643,0.06792295,0.0037533464,-0.004459614,-0.067894176,0.0011174947,0.08286291,0.06918194,-0.013700975,-0.030009255,-0.075599395,-0.04084853,-0.018503876,-0.016509015,0.03586757,-0.056472383,0.09113248,0.08790877,0.010897484,0.041100796,0.08690733,0.078532234,0.06933572,-0.069113955,0.07706822,-0.008092951,0.04549886,-0.046821304,-0.06861816,0.038117964,-0.0017329378,0.0098547675,-0.091234915,-0.095845096,-0.024675583,-0.0032527074,-0.092545465,-0.0051056766,-0.06861571,0.01673506,0.10141851,-0.09314993,0.101664685,0.018069692,0.0578133,0.016976545,0.008693362,0.008241464,0.016649552,-0.09561742,0.015990853,-0.0758658,-0.043002862,0.058218278],[0.040236354,-0.07303797,-0.016941475,-0.0927353,-0.093941815,-0.022590118,-0.096473925,-0.013945706,0.02680135,-0.087674454,-0.02677098,0.032877445,-0.021220066,0.07748745,-0.031536296,0.059294872,-0.09450411,-0.06382062,-0.06736811,0.09443978,0.051599193,-0.09336108,0.058240384,-0.053384617,0.07409227,-0.07803851,-0.025127314,-0.07984639,-0.010716605,-0.010760735,-0.05840332,-0.08322356,0.03979644,-0.046971783,-0.057473686,-0.07873135,-0.028564617,-0.017401917,0.011752895,0.008199236,0.0054179453,0.0646969,-0.03852762,-0.08861917,0.06439171,0.03179489,0.07196213,-0.101270884,0.010872373,0.044370946,0.07067717,-0.056223582,0.0010882606,0.09346782,0.06749302,-0.047031894,0.0530495,-0.06745923,-0.008064455,-0.09094986,0.08170402,-0.096018955,-0.036101837,-0.047875635,0.020899618,-0.044722226,0.08711968,0.02470734,-0.02401913,0.06664928,0.09345176,-0.057329543,-0.063354164,-0.098885044,0.014540337,0.030700462,-0.07141292,0.08626609,-0.03442382,-0.08184533],[-0.042938042,0.062225647,0.070034355,0.020767212,-0.043256883,0.03545472,-0.003645648,0.00043780264,0.0058125276,0.07297087,-0.061032467,-0.048576623,-0.012177781,0.01797992,-0.069442384,0.012083872,0.07845431,0.05677535,0.07272359,-0.04018705,-0.100581564,-0.041858315,0.08367209,0.08810879,-0.056014158,-0.06473035,-0.063299775,0.03692393,-0.043257814,0.059978906,-0.048942726,-0.025342677,-0.07515497,-0.05117856,0.08494145,0.032696564,-0.027902905,-0.04601561,0.089378335,0.0011583334,-0.1000232,0.059006214,-0.0051204218,0.009181887,0.0011097852,0.05986083,0.01298653,-0.023813883,0.014541925,0.014213961,0.07001472,0.08720205,-0.058339782,-0.07781894,-0.012526451,0.08320544,0.07996199,-0.07682196,-0.07020486,-0.035963036,-0.025026439,0.077783905,-0.013041576,-0.06642245,-0.06445214,0.087755315,0.085501924,0.032928444,-0.0556165,-0.046477534,0.0010684092,-0.088175766,-0.009338615,-0.09540625,0.07281026,0.06385485,-0.07174092,0.044923108,-0.017218398,0.006800963],[-0.04249823,0.0220635,-0.037464716,-0.042326327,-0.0059270714,0.037468936,-0.0077647613,-0.061974466,-0.05259383,-0.08012159,-0.07622009,-0.088853724,-0.08122621,-0.073523,0.02056418,-0.091085546,-0.01354442,0.04826041,0.06764985,-0.03411,-0.0967524,0.007928682,0.0529618,-0.088208824,-0.08921209,0.043911126,0.08189897,-0.09822298,-0.061993007,0.04602046,0.06253227,-0.024478387,0.03839931,-0.063241884,0.02517957,0.084599786,-0.012264194,-0.09908804,0.03797396,-0.028683899,0.010098364,0.009412424,-0.07384987,0.019261416,-0.033310562,0.031571817,0.06184358,-0.07099785,0.090337776,-0.09301051,-0.07118365,-0.046010945,-0.06330113,0.057722837,0.047226314,-0.0061752675,-0.033270307,-0.01469207,0.07512709,-0.028997807,-0.101726994,0.08546356,0.055574518,0.06908347,-0.07542786,0.081917234,0.02278204,-0.045844052,0.02783534,0.0071927947,0.037644044,0.027919905,-0.00075647765,-0.05821915,-0.081334665,0.035032634,0.035488404,0.008956427,-0.08248708,-0.006054589],[-0.08018672,-0.066414624,-0.08301991,0.03727479,0.020842329,0.0032257042,0.043251574,0.025831776,0.082849,-0.022254232,-0.057897475,0.051599193,0.044988178,-0.01211606,-0.07439189,0.107555665,-0.06323833,0.051967565,0.021242341,-0.020191927,0.050746683,-0.001027057,0.05565772,-0.09761587,0.026771113,0.017806329,0.012797619,-0.04685834,-0.084707744,-0.029176444,0.09487254,0.042992525,0.07622892,0.0652149,-0.069569066,0.04948076,-0.07938091,-0.021577818,-0.06825347,0.09317607,-0.0058103097,-0.058058605,-0.0038315305,-0.0533105,0.097789414,-0.054351326,0.0015008847,0.008343105,-0.035289828,-0.09067498,-0.09463259,-0.01271675,0.08257962,-0.019242665,-0.040842798,0.022214158,-0.08753195,-0.06123999,0.06121084,0.10008248,-0.100250185,-0.077049896,-0.05069479,0.08290574,0.040945753,-0.07414502,0.014555882,0.0057805805,0.058197994,-0.013790157,0.058288887,-0.045357525,-0.0013489479,-0.102490954,-0.0928289,0.02258591,0.09746298,0.02037338,-0.09434092,0.010744526],[-0.0022785063,-0.054386426,0.056919098,0.025659844,0.037559364,0.084173605,0.016840804,0.020476962,0.021917867,-0.001550864,0.027131775,0.04931331,0.09942743,-0.07538276,0.020415407,-0.0775896,0.06524345,-0.045878638,-0.028269792,-0.0662506,-0.040836055,-0.0064924974,-0.10153414,-0.06626916,0.051715348,0.08975433,0.0031194245,-0.061680183,0.009136339,0.06429422,0.08525147,0.096938826,0.02330247,0.07095847,-0.070105135,-0.04518574,-0.060059182,-0.06424607,0.06562682,-0.048230417,-0.102020055,0.03968665,-0.033759315,-0.03610483,-0.08807778,-0.023778241,0.04438412,-0.013338801,0.02127219,-0.086947426,-0.024586013,-0.070343375,-0.053000204,-0.035984106,-0.07636059,0.042992,0.009778554,0.035242092,0.04741999,0.08254627,0.08632137,-0.058943663,-0.073697284,-0.03162101,0.08839531,0.06729368,0.011615488,-0.06775358,-0.08213004,0.010246491,0.0059960736,-0.041289844,0.08302363,0.07274939,-0.040346317,-0.086894356,0.036022775,-0.02297491,-0.035449978,0.07609864],[-0.043079305,0.07019576,0.0501101,0.09034051,-0.080366,0.04904437,-0.023858394,-0.009195782,0.0997828,-0.06825825,-0.061587743,-0.052297574,-0.011122444,0.09209906,0.0042805728,0.10164767,-0.028596599,0.07966676,-0.06946019,0.07439201,0.047631163,-0.004269073,-0.06607171,-0.015265463,-0.052902058,0.04895812,0.09445214,-0.06409982,-0.0019477854,-0.018050596,0.08068787,-0.03414528,-0.046479136,0.08219228,-0.016606675,0.073331125,0.004836636,-0.05290152,-0.048203662,-0.068788365,-0.06630324,0.0112433145,-0.033297922,-0.046709903,0.040197533,0.084626526,-0.011729892,-0.050336335,0.05823205,-0.01939846,-0.02911747,0.06312366,-0.0073049082,-0.0015479329,0.095958434,-0.07858884,0.057953082,-0.00010645986,-0.00011507998,0.082066394,0.041391253,-0.0013297874,0.068664595,-0.017157042,-0.054882698,0.031171866,-0.065685526,-0.01787629,0.0033884416,0.08286646,0.072601266,-0.033004433,0.07243595,0.03622866,0.047584347,-0.06572976,0.014570692,-0.016398318,0.034250215,0.020747734],[-0.06683437,0.05830663,0.05343592,0.0036644512,-0.042829756,-0.054864723,0.06905309,-0.0038948806,-0.05006173,0.04864021,-0.028022677,-0.020670917,0.07797928,-0.033756386,0.026028972,0.011827781,0.026832871,-0.073746994,-0.012498686,-0.06891376,0.07293355,-0.043542597,-0.029897364,0.028316835,0.05486496,-0.076881446,-0.10134759,-0.081466205,-0.10122374,0.0026685505,-0.06354201,0.0013732435,0.09943634,-0.0008897691,-0.096126646,0.05801233,0.06699671,-0.07485492,-0.029166149,-0.061478335,-0.018996453,0.050160646,0.016228622,0.009773426,-0.054311976,0.08189392,-0.057781555,-0.0666968,0.026229678,-0.04777469,0.021785336,0.057969213,0.094804145,0.05522561,-0.054333594,-0.05905685,0.023812493,0.050130855,-0.07190766,0.037161037,0.042482495,-0.07220122,-0.073198706,0.077080056,-0.037480164,-0.055758234,0.05969119,-0.013823056,-0.023249276,0.040888995,0.05936332,0.0486101,-0.055166915,0.093166515,-0.0018343225,-0.08310331,0.07273178,-0.0009307928,0.06118611,0.10192642]],"lstm_discriminator":[[-0.59905154,-0.6431808,0.45828515,-2.2926989,1.6969774,-1.3333044,-0.3431462,2.352945,-1.0727811,-0.57308865,0.93327725,-1.361493,-0.49427536,0.1750555,-1.4171507,0.53061646],[-0.642637,-0.51706713,0.51224244,-2.3989563,1.6908369,-1.3088133,-0.26465875,2.357925,-1.0030254,-0.5777793,1.0326891,-1.3740592,-0.46397233,0.26634967,-1.3919296,0.5131663],[-0.6149036,-0.64699215,0.570497,-2.4306228,1.713822,-1.2946177,-0.17264067,2.239674,-1.0530946,-0.5952513,1.0208503,-1.4025291,-0.53962934,0.20381314,-1.332786,0.46122944],[-0.52867645,-0.56003344,0.47873706,-2.4641855,1.7094346,-1.2929798,-0.16703406,2.2699182,-1.032858,-0.4578818,1.0168616,-1.5077919,-0.5408712,0.09684707,-1.4761043,0.600446],[-0.56643087,-0.547491,0.52956927,-2.2738938,1.6253158,-1.2197682,-0.27749708,2.2473814,-1.0846063,-0.551271,1.0493025,-1.4605808,-0.4949928,0.24854192,-1.4833148,0.5099614],[-0.48267028,-0.6447436,0.4626459,-2.3695612,1.6420982,-1.3550084,-0.16553745,2.3242478,-1.0515813,-0.5964618,1.0401479,-1.4856042,-0.6224869,0.23156714,-1.481046,0.5988237],[-0.57123137,-0.630735,0.63701105,-2.2896738,1.7402804,-1.2937026,-0.32888854,2.2363288,-0.9999514,-0.48558825,0.90768486,-1.48829,-0.46644723,0.26317176,-1.426785,0.6319786],[-0.45135987,-0.51711744,0.62129945,-2.4561772,1.6131142,-1.3646374,-0.30348536,2.2865763,-1.0241493,-0.5762406,1.0057633,-1.4066185,-0.5609431,0.15886533,-1.3492242,0.48600084],[-0.44626307,-0.6209629,0.47752312,-2.3902993,1.7674923,-1.3268771,-0.21170972,2.2322073,-1.1172444,-0.60257334,0.913761,-1.3739688,-0.56332034,0.1547373,-1.4778361,0.4930036],[-0.6172919,-0.63854575,0.5814919,-2.3493674,1.6253352,-1.2691095,-0.28565732,2.2873127,-1.036953,-0.5947133,0.9942114,-1.3976221,-0.5569624,0.24022728,-1.4957209,0.4436009],[-0.49241814,-0.5476982,0.63367707,-2.3938406,1.6310214,-1.1793848,-0.29821575,2.3951602,-1.121436,-0.50993514,1.0994735,-1.3596325,-0.49823642,0.20409653,-1.4555817,0.51084495],[-0.49798137,-0.6321173,0.54617184,-2.3205693,1.6104755,-1.2602229,-0.22959435,2.2935114,-1.1327186,-0.5658422,1.0312141,-1.3681371,-0.5000568,0.2459404,-1.3392967,0.45331347],[-0.6430225,-0.53130037,0.5179288,-2.4417548,1.6999639,-1.171222,-0.17551492,2.3579955,-1.0716813,-0.5244033,1.0560689,-1.3690573,-0.5529882,0.12505034,-1.3322732,0.4490491],[-0.5815049,-0.5453374,0.6336488,-2.4447112,1.6751866,-1.2445819,-0.2728059,2.2781706,-1.0226897,-0.6051172,1.0143195,-1.5106176,-0.61383563,0.21806124,-1.4408481,0.5070185],[-0.5480385,-0.55690205,0.5396141,-2.3680015,1.6376566,-1.3622584,-0.24024472,2.2777286,-1.1053678,-0.6462191,0.93291014,-1.4273281,-0.6266102,0.10001817,-1.457737,0.55974036],[-0.48106703,-0.5832802,0.5747148,-2.3322089,1.735771,-1.3090613,-0.3304257,2.2323184,-1.1309919,-0.47637528,0.998458,-1.4155184,-0.5182797,0.29533714,-1.4377756,0.4593761]]}