{"rnn_weights":[[-0.054115724,-0.092080474,0.021088004,-0.06821099,0.07041205,0.0041546375,0.05843725,0.038488813,0.08327771,-0.020368934,0.09750002,0.019596696,0.07273758,0.009552695,0.02268517,-0.025016233,-0.05191636,-0.027137302,0.0003869757,-0.035688832,0.095343776,-0.07196176,-0.006863974,-0.020833448,-0.038169503,-0.06373103,-0.044047475,-0.09297562,-0.07823618,-0.072612904,-0.061086606,-0.04443116,-0.052875187,0.027145334,0.09364384,0.038249277,0.07030279,0.04015305,-0.08236039,-0.02896414,-0.051948693,-0.06897263,-0.070850134,-0.03937011,0.09936673,-0.06116853,-0.0017699003,-0.081817105,0.04069314,0.04587295,-0.03688796,0.07535828,-0.090049244,-0.0016769394,0.0020813718,-0.009627819,-0.010334611,0.07434612,-0.040236738,0.044408776,-0.088422656,-0.027012348,-0.009256028,-0.02336073,-0.038949013,0.098582245,-0.049121976,0.015376829,0.033870675,-0.08999222,-0.06965761,-0.09980171,0.06598265,0.09589625,0.051975466,-0.006877497,-0.060485315,0.04409165,-0.06747384,0.01006417],[-0.059298445,-0.03514018,0.007227421,-0.0275511,-0.09051385,0.020401359,0.063507326,-0.0822566,0.08070827,0.026388936,0.0036655217,0.02682545,0.0519974,0.09005373,-0.057258178,-0.051647212,-0.010049321,-0.051006794,-0.099771194,0.057981662,-0.059188105,-0.056748774,-0.014578417,-0.024359778,-0.04405091,-0.014670156,-0.0789021,0.090252884,0.08625073,-0.019350909,-0.015038535,0.04525786,-0.020338729,0.0390212,-0.0122222155,0.0624372,-0.09376092,-0.028973177,0.035207845,-0.055136897,0.02208183,-0.040788103,-0.00475917,-0.019698426,0.06335951,-0.016738199,0.02648189,-0.09348488,0.04139226,0.07113419,-0.016676426,-0.04122622,-0.034766935,-0.037608005,0.044648297,0.06940582,0.031451367,0.037486248,0.09908915,-0.024507836,-0.022818945,0.043849446,0.067950584,0.00555899,-0.05007739,0.032954432,-0.0066373125,-0.003797911,0.09305733,-0.047537755,0.07013934,-0.004903771,0.08190923,-0.06717189,0.0062912703,0.06991721,-0.01935365,0.065194435,0.083811454,0.0031481534],[0.009705499,0.059329696,-0.0077100545,-0.067648694,-0.011513568,0.0108541995,-0.04911871,0.030914403,-0.010432266,0.022305511,0.0825542,0.02119577,-0.079093695,0.07101732,-0.05967767,0.09837217,0.093639754,-0.006303929,0.027302794,-0.07506955,0.02044721,-0.014856026,0.027614929,-0.00013945252,-0.0027119666,0.016513847,0.056583174,0.015435696,-0.033069447,0.0418145,0.039921768,0.0069304258,-0.09285658,0.07845051,-0.04984484,0.007237509,-0.00014887005,-0.011848524,-0.01783605,0.051433392,0.021293357,0.006082058,0.06310568,-0.012617871,-0.029225588,-0.07017918,0.08655936,-0.0061872005,-0.019960426,0.05867017,-0.046029903,-0.0011842996,-0.08131826,-0.023318432,-0.07859752,0.08730436,-0.0697978,0.09619755,-0.044979047,-0.037325002,0.018918082,0.03292022,0.024264075,-0.0050219074,0.012251876,0.01826284,-0.050748564,0.056056432,0.09856706,-0.06589017,-0.021161601,-0.091640234,0.07814171,-0.029435135,0.06275747,0.087804176,-0.030675933,0.012594536,0.022338673,-0.010771036],[0.07255345,0.08332429,0.0837251,0.012757733,-0.051416304,0.012857363,-0.022940613,-0.090429306,0.054508142,0.031615622,-0.030745342,0.00057766587,-0.09175294,0.061424516,-0.047157552,-0.026547983,0.095902495,-0.07510438,-0.082195565,0.031718157,-0.013964057,0.087686725,-0.057223465,0.038306184,-0.051702786,-0.08417368,-0.018941805,0.059209324,-0.073528744,-0.07004921,-0.07551308,-0.096719764,0.079477765,0.078988455,0.01577954,0.08867126,0.020457432,0.046985127,0.06631858,-0.015597746,0.06435885,-0.021955654,0.060487576,-0.031177446,0.056357868,0.08411167,-0.027697086,0.021286413,-0.062172722,-0.07173107,0.035813592,-0.08765798,-0.060786676,0.052780412,-0.009930134,0.09665828,0.044342496,0.04367564,-0.017160848,0.010056734,-0.0053615794,-0.08762479,-0.09713788,0.07920704,0.056140833,0.0039745346,0.048377655,0.09368218,-0.07543705,-0.019915558,-0.013417341,-0.041588902,0.0024314672,0.098809265,-0.08796878,-0.034739636,0.017638609,-0.047633793,0.028763868,-0.06923034],[-0.01632464,-0.0066397414,-0.025887802,0.07436962,-0.027818106,0.015985534,-0.09244766,0.093426965,-0.06577413,-0.026504114,0.023052357,0.07052136,0.024660662,0.020790674,0.0652019,0.029392071,0.05327893,0.0024819374,0.09018617,-0.03556609,0.09279022,-0.028208658,0.007175423,-0.017219521,0.09314018,-0.054552436,-0.010293171,-0.024756506,0.04890313,0.08669371,-0.0825284,0.095775865,0.099690415,0.092668675,-0.068954825,0.0028541088,0.020973444,-0.045922853,-0.08023636,-0.051750064,-0.034356095,-0.060071565,0.06611746,-0.023149945,0.017288662,-0.059913825,0.04029674,-0.026144102,0.05843752,0.098851465,0.07229247,0.06293417,0.060216956,-0.030195333,0.086191826,-0.08802581,-0.07230556,-0.059742045,0.051641725,-0.019976042,0.09432227,0.04664541,-0.01297529,-0.08941846,0.087896965,0.018891,0.08851183,0.013371155,-0.096042156,0.09185324,-0.08415957,-0.0059674755,-0.01494994,-0.06284173,0.09130948,-0.04353385,0.09729678,-0.08211763,-0.0029250383,0.06557693],[-0.057838153,-0.019867018,0.0472359,-0.0846411,-0.043083597,-0.02009444,-0.0035959035,-0.06735115,0.041534193,-0.035272576,-0.07472305,0.04132981,0.056259133,0.080700286,0.05581654,0.05744589,-0.03577719,0.09620311,0.036856063,0.067115836,-0.045794655,-0.011258699,-0.06758495,0.04233866,0.024454117,-0.014662817,0.09939208,-0.080409504,0.029545195,-0.08760395,0.048276924,-0.005277112,0.018902086,-0.09158409,-0.0951006,0.037968136,0.06813485,0.08848069,0.05770021,-0.05588713,-0.0932036,-0.08878686,-0.009031035,0.022407457,0.08724556,-0.08035753,0.04450562,0.051110215,-0.00038468838,0.04180313,0.028821327,0.07975001,0.0035512447,0.0031291693,0.053136833,0.049220704,0.061821587,0.006613396,0.09036646,0.0057837516,-0.09078374,-0.047533322,0.054262765,0.043086104,-0.046762418,-0.013737604,-0.04362719,0.054422446,0.050553136,-0.07217407,-0.07766125,-0.07336762,-0.023027852,-0.08779674,-0.008250311,-0.09876664,-0.08651149,-0.04769664,0.07769089,0.002204731],[-0.03624692,-0.061333608,0.07728524,0.029895015,-0.07624495,-0.041704893,0.07472127,0.09468684,-0.021638036,0.035489865,0.041599758,0.057134397,-0.080675505,-0.06975601,0.05088622,-0.021537758,-0.058554795,-0.019105889,0.025831603,0.048246212,0.026039965,0.014529608,-0.060839772,-0.02242279,-0.07780864,0.010487653,0.06297756,-0.06577842,-0.0014249533,-0.08328877,-0.058028556,0.019495942,0.07877963,0.029920273,-0.020863652,-0.0031592846,-0.03308682,0.0025191307,0.019115232,-0.061717104,-0.04980123,0.013289452,-0.019528247,0.07927901,0.05061973,-0.0815325,-0.01775644,-0.0532038,-0.09789758,-0.057534646,-0.094734006,-0.053896286,0.04221923,0.09470398,-0.021344826,-0.086458825,-0.020017385,-0.082474515,-0.06682372,-0.045632552,-0.0019502416,0.09406226,-0.06160393,-0.03302808,0.058502965,0.060331322,0.031047009,-0.017103627,0.009667635,0.0028144121,-0.006994866,0.050888784,-0.06245351,0.015333772,-0.03913138,0.07344628,0.068088345,-0.026768468,0.08361337,0.03617587],[-0.0038363189,0.08286049,0.010016538,0.057294987,-0.028489232,-0.039069247,0.09817117,0.08317273,0.03189943,-0.0012767538,0.0679257,0.07526935,-0.094066024,-0.092627384,0.077361725,0.020358779,-0.020836994,-0.09766715,0.06456993,-0.029216453,-0.098457746,0.009181596,0.07871053,-0.053037193,0.094921954,-0.0098709315,-0.02395501,0.075833775,0.07688885,-0.01846011,0.025581546,0.067537285,0.019598387,-0.056913804,-0.022413015,0.049510546,0.07615907,-0.009418651,-0.09716654,0.046372466,0.03301256,-0.035098985,0.088488646,0.017947957,-0.048582315,-0.0096836835,-0.0013683066,0.09551007,0.0028126016,0.02317755,-0.044652082,-0.032187916,-0.0026043877,-0.033793613,0.08368427,-0.06289494,0.07447315,-0.040767122,-0.059291292,0.011398338,0.020495847,-0.049057435,0.08823968,-0.029325128,-0.056893397,0.039261036,0.07325802,0.009578273,-0.009783484,-0.083708264,0.07100286,-0.07794285,0.05703924,-0.020358607,0.01627753,-0.001577571,-0.07803337,-0.018808506,0.04589749,0.024134777],[0.059933923,0.055386253,0.064803414,0.023620203,0.056234784,-0.09182274,-0.019054197,0.01674068,0.048381113,0.011709452,0.08929854,-0.041922808,-0.031413987,-0.035265326,0.0246166,0.03422206,-0.072112225,-0.0116596,-0.0015896335,0.08745449,0.0444253,0.037338875,-0.033417508,-0.01697731,0.06858487,-0.047973275,0.010207988,-0.0057534724,-0.07684505,-0.07549133,-0.018196627,-0.06717358,-0.09867175,0.014415339,0.0030278414,-0.04957316,0.03094513,0.067624636,-0.008041479,0.04678256,-0.041856624,0.09854526,-0.093983606,-0.04912634,0.02184508,0.016751386,-0.09225197,-0.015714884,-0.0049402714,0.06162817,-0.0768806,-0.06066091,0.027212448,-0.009755135,0.06987574,0.08395424,-0.09557505,-0.0019119531,0.09310705,-0.022565916,0.06293192,-0.032127023,-0.09784915,0.079720505,0.06037412,-0.04802356,0.071668215,-0.054883193,0.07632876,-0.010895133,0.038107224,0.0832716,-0.08128615,-0.036219932,0.034773372,0.0122109875,0.038487382,0.067712195,-0.06196308,0.07150512],[-0.086035065,-0.09499531,-0.08652251,-0.040501785,0.016326785,0.077866815,0.010891341,-0.0129539,0.027751349,-0.048821,0.026696898,0.0492099,0.04105366,-0.07742653,0.0227205,0.082680725,0.08829925,0.058379434,-0.014403559,0.054396294,-0.09481728,-0.08888016,-0.009196922,-0.0138255805,0.09225731,0.098068886,-0.06560123,0.0805831,-0.06983922,-0.06157372,0.082181595,0.04328973,-0.07530403,-0.09271228,0.0799736,-0.020961978,-0.054279972,-0.020041034,0.019669391,0.041333325,0.0116645545,0.016044423,-0.09852188,-0.016874291,0.0020029321,0.01914344,-0.03223689,0.026063152,-0.02884467,-0.009061024,-0.09006327,0.07376466,-0.079969786,-0.05678432,0.013271071,0.040765695,-0.043905903,-0.09242465,-0.05333543,0.041669674,-0.009005882,-0.099914454,-0.0025367513,-0.029887699,0.066228874,-0.045812894,-0.09745758,-0.032465674,-0.033353806,0.03692963,-0.09760757,0.08888727,-0.08419645,0.006352976,-0.01736033,0.07915185,-0.0509079,-0.077145815,-0.009998158,-0.054074194],[0.057045363,0.042804264,-0.025707483,0.06576436,-0.012147687,0.02674342,-0.09822669,-0.08177574,0.051199086,-0.04321878,0.030827098,-0.052665688,-0.06663082,0.04595702,0.006504774,0.07071365,-0.03259532,0.046634175,-0.058040764,0.052354433,-0.012997724,-0.07034085,0.072268434,-0.050663065,-0.05945578,0.015309669,-0.0018349886,0.038920574,0.04032331,-0.07637272,-0.019669868,0.08587382,-0.053279378,-0.0110964775,0.035377316,0.009118006,0.03146515,-0.027433492,-0.08480694,-0.061301973,0.038967542,-0.07758355,0.08596481,0.0962471,0.09918263,0.02972234,-0.028755546,0.09720867,-0.052349593,0.06409142,-0.06807752,-0.04342058,0.05052898,-0.07800317,-0.077444986,-0.078908324,-0.07418828,0.059085436,0.09242322,0.06637741,0.077742554,0.025237627,-0.05722029,0.031542994,-0.016765878,-0.09785893,0.023326732,-0.07066572,0.045746543,0.09562447,-0.090292506,-0.05990913,-0.09441872,-0.03078644,0.011843704,-0.05126169,0.070925854,-0.022519752,-0.05137763,-0.07726278],[0.07346917,-0.05766983,-0.032203555,-0.037232324,-0.0070439577,-0.00033912808,-0.060534168,-0.09988346,0.062307186,-0.021181658,0.045339115,0.026642255,-0.0788841,0.07553206,-0.09192524,-0.07191994,-0.07614398,0.062224038,0.023228787,0.0028122216,-0.03304951,-0.06708691,-0.07535522,0.059163995,-0.025916599,0.024287894,-0.05180159,0.047624655,0.059816144,0.015175007,-0.099837475,0.020318314,0.040642165,-0.027553722,-0.09505057,0.010172799,0.034998782,-0.031242207,0.08650432,0.0495492,0.054449566,-0.05918157,-0.06502447,0.095294856,-0.061830547,-0.04126637,-0.058465242,-0.086547256,0.08482506,0.05556672,0.046694763,0.04925347,0.04203678,-0.09805713,-0.09752083,0.08895732,0.01597464,0.04135301,0.05545927,0.05128283,0.07483997,-0.087908916,0.009167574,-0.08218138,-0.041860413,-0.020721577,-0.08052111,0.0474037,-0.03841107,-0.039728045,0.01621902,-0.026695155,0.029271819,0.010349534,-0.046349168,0.06454695,-0.087532304,0.05438059,0.019085363,-0.0016793236],[0.0779952,0.04077054,0.055525117,0.030877404,0.027837254,-0.006238386,0.08020037,0.0550349,0.06884644,0.038784914,0.086215265,0.06619976,0.008099653,0.06732311,0.095867015,0.041548945,0.04395134,-0.09136357,0.057805516,0.011133954,-0.096897654,-0.09899876,0.062388353,0.0005063787,0.0020904317,-0.0010973215,0.05124522,-0.072725415,0.09755374,0.034105666,0.08568754,0.07715557,-0.028540589,0.07307226,0.08508315,-0.015303299,-0.033959195,-0.027657673,-0.07057591,-0.037415907,-0.01872249,-0.07345414,0.062003903,-0.01692424,0.058055215,0.07073098,0.08557921,0.051541544,0.08100528,-0.0095881,0.01871562,-0.05290234,-0.0245291,0.038618155,-0.023464799,-0.07865117,0.029590674,0.00043475628,0.05202212,-0.017603591,-0.008436106,0.054143973,0.09594677,-0.050551485,0.05996389,0.090291195,0.090458445,0.02802927,0.094169,-0.04129019,-0.08105175,0.0457825,0.0044717565,0.022702694,0.039691754,0.080346294,0.07851448,-0.026506424,-0.08548071,-0.044697788],[-0.009402394,0.074625544,-0.043321252,-0.0014978424,0.015949272,-0.017470524,0.07871575,0.05546706,-0.05908444,-0.014878824,-0.0057837516,0.053855233,0.08070303,-0.03735368,0.06666703,0.043232895,-0.012934372,-0.059921384,0.0010476112,-0.027209684,-0.0698504,-0.026606277,-0.06206155,-0.02315493,0.09035844,-0.0108175725,0.025001355,-0.07485795,0.09349222,0.093476154,-0.021062613,0.039285712,0.08856166,0.008379199,0.060704045,-0.050692916,0.07525111,0.08173039,0.056776427,-0.09067585,-0.070268154,0.036224537,0.052626826,0.028790094,0.028945334,-0.019398645,-0.020149231,0.09648197,-0.020946838,-0.050411798,0.017722368,-0.044072296,0.0890807,-0.049692083,0.06574113,-0.06356816,0.09344237,-0.04081824,0.080271415,0.019657299,0.027835198,0.051210694,-0.09954152,0.09026084,-0.08662333,0.05529342,0.003458716,-0.07347391,0.019406602,-0.08088286,0.012199879,0.053656287,0.07915912,-0.009836532,0.05687394,-0.06836645,0.08809159,0.095101245,-0.09418271,0.04651732],[0.0886218,-0.0035253987,-0.024607375,0.04834161,0.07109954,0.059148483,0.07512567,-0.036539555,0.008990623,0.08622632,0.07671306,0.054405637,0.06447718,-0.095665455,0.05066312,-0.029386185,0.021485828,0.06540022,0.0808369,0.040534787,-0.09016698,0.05229176,0.009824969,-0.04121511,0.09708112,-0.014976785,0.0026069432,-0.06808774,0.047593363,-0.08196707,0.0105939135,0.049140595,0.021533176,-0.06322229,-0.07410238,-0.018014766,0.013357043,-0.07268872,0.0049532875,-0.02143655,0.030072667,0.06894324,-0.027801797,-0.047455024,0.068688996,-0.083047196,-0.038836766,-0.022508718,-0.07472167,0.029689126,0.082807966,0.054142974,0.097233586,-0.006142929,0.09649687,-0.07898085,0.0468399,0.07813356,-0.015119933,-0.0152820125,-0.05804336,-0.089686036,0.00095307827,-0.07287073,0.0296982,0.055628605,-0.06833032,-0.07539566,0.070746236,0.096168585,0.049167894,0.0484967,-0.0059654713,0.09541047,-0.018655732,-0.07070577,-0.024092361,-0.016177014,0.098173596,-0.0918298],[-0.051463913,0.0056959167,0.055985384,-0.05725155,0.097647645,0.08539591,0.036602683,0.04464913,-0.056774307,0.028110199,-0.02840583,0.03322161,-0.070736624,0.061562993,0.09397667,-0.0052715316,0.017872885,-0.06002908,-0.081650615,-0.004693389,-0.016020223,-0.07540648,-0.019528724,-0.065402076,-0.089236215,0.04407861,0.023538373,-0.071775414,-0.018375114,-0.018295124,0.041360952,0.05496504,0.08236966,0.061027654,0.02563233,0.03538654,-0.08939419,0.016753837,-0.0017095357,-0.078402,0.035985015,0.0088309795,0.0056277737,0.011220239,0.020957328,-0.04018302,-0.005925633,-0.09539683,-0.0655751,-0.0076803416,-0.0149178505,0.08353648,-0.03097403,0.057334013,-0.009510323,0.03539472,0.026704974,0.03305938,0.040385537,0.05722397,-0.064039946,-0.09985638,0.037640028,-0.036785007,0.033248313,-0.092801265,0.03398443,0.0143959075,-0.027786396,-0.035683252,-0.09800468,0.0076071993,0.012943074,-0.025172852,-0.08120825,0.06809395,0.039071493,0.05448366,-0.027487017,-0.01521647]],"rnn_discriminator":[[-0.061833885,0.041820534,-0.07591395,-0.08952961,-0.096900724,-0.01859741,0.0029592067,-0.018954754,-0.016173743,0.05711811,-0.07572808,-0.09820628,-0.097185686,0.06779427,0.07529325,0.028105922],[0.056316428,0.067747645,0.05949288,-0.04067054,-0.028558448,-0.076121286,-0.06673403,-0.09285309,-0.010084465,-0.038398672,-0.05367701,0.034548588,0.007145211,0.049117975,0.042184882,-0.005117774],[0.06273606,0.048185878,-0.058737494,0.096815325,-0.060995936,0.09499524,-0.023094699,0.040097095,-0.0035204142,-0.0751029,0.05651588,-0.053717233,0.059462555,-0.055618312,-0.035285875,0.016277954],[-0.066834286,-0.07689872,-0.062134814,-0.011835791,-0.03236387,0.025356077,0.053009845,-0.011468098,-0.068452455,-0.0525676,0.09207342,0.058851622,0.015843555,-0.09664643,0.030257516,-0.025090598],[0.034489132,-0.039160397,-0.057386447,-0.008267477,-0.09759422,0.08743539,-0.05993345,-0.09546125,-0.074232675,0.047131635,-0.035673,-0.05882747,-0.014106154,0.009447932,0.040596582,-0.067086026],[0.053291373,0.087517284,0.023544595,-0.028694704,-0.08679111,-0.07674734,0.058883794,0.013393261,0.050061174,0.047769643,-0.090935305,0.09492708,-0.05859795,0.03919258,0.024681687,0.03687296],[-0.08789928,-0.008562662,-0.023906752,0.090371154,0.08083091,0.033171035,0.029535078,-0.07367132,0.060343392,-0.095501,0.028484158,-0.053290676,-0.043186355,-0.049528696,0.08730597,-0.027215317],[0.07169252,-0.09663942,-0.09160626,-0.053453423,-0.046588946,-0.09700761,-0.06867049,-0.02878163,0.01762829,0.059660606,0.004607439,0.09935353,0.0023152828,-0.040496588,-0.08372469,-0.058900096],[-0.033449844,0.019038841,-0.003657937,0.023223713,-0.04261701,0.0050943866,-0.050653484,0.081609495,0.046189167,0.09394527,0.066655524,-0.02147384,-0.026579522,0.09018328,-0.07011032,-0.054067254],[-0.0767874,-0.0028639063,0.008606575,0.022321485,0.016643547,-0.09336491,0.093050264,0.004305169,0.058197163,-0.042403843,0.05115653,-0.09182382,0.07597735,-0.006668113,-0.067922994,0.0007150918],[0.03917647,0.09288507,0.06534367,0.08843321,0.029914387,-0.047670055,-0.06298104,-0.000919126,0.021086454,-0.060971905,0.028393216,-0.046905257,-0.037109137,-0.047454048,-0.09240904,0.0063543096],[0.08972063,0.08067026,-0.057859898,0.08835628,0.0957823,-0.09436724,-0.020325467,-0.0884152,-0.08624065,-0.06597188,-0.03801017,-0.092571735,0.06927874,-0.08076825,0.080275305,0.09077316],[0.05037003,-0.0863476,-0.020077944,-0.034505464,-0.039216734,0.057728596,-0.061123967,0.07769821,0.047496177,-0.008575223,-0.04402237,-0.04645283,-0.07202258,-0.037249923,0.013847806,0.060302146],[0.07967455,0.09089165,-0.033322737,0.019359492,-0.09595721,0.051194765,-0.069110945,0.02458141,-0.023168921,-0.07544148,-0.012796,0.08417008,-0.037459277,-0.09885051,-0.051857065,-0.07136607],[0.09802034,0.09145897,0.001245454,0.01614125,0.04663623,0.050468214,-0.067225054,0.061838128,0.0747375,0.022915147,-0.07253792,0.06607137,0.06349964,-0.040890217,-0.017155625,0.08356049],[-0.011727355,0.08829326,-0.04415753,-0.007878348,-0.05163903,-0.05575428,-0.06728724,-0.023506477,-0.05313232,-0.07909949,-0.024154231,0.060034133,-0.008469939,0.074594714,-0.040970396,0.015432671]],"cnn_filters":[[[-0.07288029,-0.014346264,0.018442966],[-0.027340576,0.020567916,-0.046761777],[-0.07600586,-0.016915157,-0.08952017]]],"cnn_discriminator":[[[0.093278624,-0.027100965,-0.016386963],[-0.030457854,-0.019420244,-0.08389952],[0.09107321,0.070070885,0.028332286]]],"lstm_weights":[[-0.026564933,-0.0061345324,-0.09521969,-0.070647,0.023004435,0.054877765,0.036000066,0.06572769,0.09471371,-0.006039381,-0.020196058,0.034352683,-0.00990393,-0.0336736,-0.07370579,0.07214529,-0.04719274,-0.056493234,-0.06456943,0.062526174,-0.07657392,-0.082078315,-0.018817142,-0.0055356994,0.005086802,-0.024940088,-0.06285794,0.036191247,-0.054931857,0.04823292,0.05475893,0.04844492,-0.029231593,0.046724133,0.07020145,-0.07726266,-0.0010033399,0.021287128,-0.04371047,-0.04566708,-0.09770673,0.0022347718,0.05494327,-0.09742916,0.06651764,0.09254565,-0.04913025,-0.051751327,-0.07124853,0.05565498,-0.07511027,-0.067671776,0.017172001,0.004639171,-0.059658933,-0.06544609,-0.010981061,-0.062250804,0.013623573,0.06693465,-0.029136278,0.018215895,0.05673974,-0.09569488,0.036924504,0.0021115318,0.02257128,0.09093202,-0.0011180863,0.025040887,0.066136606,0.069800235,-0.049755525,0.03931763,0.078754805,-0.08464544,0.030961283,0.002136469,0.013562873,0.037063055],[-0.0059881657,-0.0300854,0.030255683,0.055493064,-0.07287376,0.067795806,-0.03654997,-0.08715405,-0.097417526,-0.0041634813,0.057846002,0.0028551593,0.04537203,0.06570091,0.054416783,0.050306298,0.08819891,-0.023084328,-0.082824185,-0.06295965,0.07193694,0.060739018,-0.08321252,-0.045041967,-0.057104614,0.043979652,0.014156818,-0.07280497,0.081087776,-0.06021445,0.030442066,0.026007302,-0.065351754,0.05272644,0.03711439,0.014326647,-0.015623093,-0.07811663,-0.098887876,0.08203202,-0.04199629,0.09202338,-0.02898433,-0.047576953,0.034387715,0.05937607,-0.06959434,-0.06869881,-0.060688496,0.06577159,-0.029488012,0.015453793,-0.0111259,-0.0870636,0.09921736,-0.096217416,-0.017258428,0.08659757,0.046038516,0.008970596,0.019585297,-0.09594526,0.033263423,-0.07688215,0.0037946254,-0.010003328,0.09267216,-0.030727841,0.011859514,0.090468414,-0.086136915,0.09796796,-0.056198955,0.04489451,0.00802581,-0.06226368,-0.0408155,0.00853996,0.0925544,-0.05118842],[-0.004057668,-0.020493746,0.055025034,0.011567667,-0.09186506,-0.066516615,-0.0063788667,-0.015525654,0.013792038,-0.090983845,0.09843356,0.0025084466,0.038646244,-0.036002375,0.045833357,-0.07916851,0.08476294,-0.06819816,-0.032105543,0.06788368,-0.08699067,-0.0033737868,0.072948866,0.019867443,-0.02150502,0.06785143,-0.06079967,-0.098605774,-0.019336179,-0.014030717,-0.050913285,-0.0726254,0.020268127,-0.06732664,-0.09889841,0.093378074,-0.007458523,-0.08380425,-0.009819128,0.07062221,0.0018017739,0.020195171,0.07952333,-0.034949854,0.09261637,-0.034357622,-0.080404714,0.09136797,-0.0042673573,0.027909763,0.06576664,0.010117456,-0.024759315,-0.03813615,-0.07995524,-0.014225408,0.045043178,0.037281133,-0.091162205,-0.039765097,0.08759577,0.035329275,-0.0474324,0.088261105,0.07267096,-0.030750372,0.0155309215,-0.028915547,0.010723352,0.07601557,-0.019764975,-0.006985329,0.061772488,-0.06282413,-0.07934117,0.014856197,-0.008010291,0.06301723,0.035480715,0.04571467],[0.09185422,-0.028318524,0.06702829,0.0903225,0.019242719,-0.010828495,0.016986325,-0.010950014,-0.06634913,-0.094207406,-0.09825671,-0.058742452,-0.011088178,0.037356876,0.083560176,-0.04413688,-0.009096004,0.0020797253,-0.003289029,-0.049070835,-0.031781934,-0.044343185,-0.059763815,0.059281833,-0.05161319,0.08459728,0.018644787,-0.011792108,-0.01523836,-0.08760989,-0.06009195,-0.09700306,0.048386432,-0.09063039,-0.02765248,0.036546163,0.07994077,-0.0018183962,-0.05017667,0.039250873,-0.06499157,-0.09650526,0.06808994,0.0681617,-0.05674069,-0.02848158,0.040202327,-0.03501737,0.015085772,-0.053997993,0.015987322,-0.04090314,0.08944643,0.05111272,-0.068136245,0.0812775,-0.09503692,-0.038319375,-0.08667185,0.014323428,-0.04328532,0.039219506,0.09631158,0.002964735,0.095959134,0.0028297156,-0.068455845,-0.075729296,-0.09840613,0.048362784,0.06343641,0.07216268,0.049966224,0.053141095,-0.09555405,-0.033827618,-0.04981332,0.003985092,0.09063048,0.011116363],[-0.064198524,0.025301911,0.004869364,0.016968466,0.037176706,0.07599575,-0.0718143,-0.026629493,-0.06117184,0.099219926,-0.040083315,0.06599481,0.020569012,0.06227968,-0.08695357,0.06763626,0.07749941,0.09899009,-0.0766932,0.035267927,0.04540091,-0.011641264,-0.05598278,-0.018475153,-0.07068644,0.021948293,-0.0066762418,0.036775477,0.021902367,-0.0021903738,-0.06396055,0.03556242,0.052007742,0.050609253,0.017699435,0.04059141,0.068550356,-0.049200486,0.01636219,-0.098784044,0.084210776,0.022473,-0.048790287,0.072443254,-0.0052165985,0.098621316,-0.021835662,-0.0968884,-0.00079362094,-0.021380879,0.026076816,0.047909267,0.011354826,-0.06637523,0.0335783,0.06907659,0.05512633,-0.08771169,0.023347422,0.006954454,0.032363005,-0.09351108,0.014299199,-0.043738462,0.048550256,0.005968377,-0.07716475,0.07904918,0.03561575,-0.08241916,0.04549413,0.08295355,-0.09188066,-0.042244412,-0.094124675,0.02369456,0.043709256,-0.048124053,0.041824393,-0.016729355],[-0.056899022,0.052197553,0.012339734,0.03105051,-0.052239727,-0.019847848,0.0027772933,-0.07847176,0.08590462,-0.065614864,-0.021406986,-0.044858765,0.035431437,-0.05730052,-0.06728867,0.06573922,0.080557294,0.042294957,0.087915204,0.05366332,0.02001524,-0.057944894,0.04836481,-0.01577206,-0.056556296,-0.015186764,0.04233215,0.0010243878,-0.095173,0.0860107,-0.07361631,-0.039543677,0.0032744184,-0.04489086,-0.02035568,-0.096662976,0.040864013,0.09131227,0.054184385,0.08352835,0.06545513,-0.0009378195,-0.026004173,0.05564382,-0.03684125,0.016874053,-0.0070601255,-0.01373186,-0.045105457,-0.030844308,-0.041640736,-0.09506917,0.010336563,-0.016894892,0.0076078624,-0.071730755,0.042014576,-0.078146055,0.02442994,-0.091135144,0.09976516,-0.06476734,-0.06898646,0.07785357,-0.0130492,0.07750196,0.035724424,0.0148992315,-0.021211788,0.0033247918,-0.04938662,0.07025502,0.08253405,0.0787951,-0.0019119531,0.0155634135,0.031313352,-0.036067225,-0.0784621,-0.03610885],[0.04057748,-0.020089507,0.06788554,0.04646478,-0.08410301,0.045714922,0.016521022,-0.077981636,-0.07589762,0.06262968,-0.04097822,-0.07881963,0.046046562,-0.011590555,-0.073243596,0.07051446,-0.038992763,-0.026345707,0.066265054,0.047542833,0.078996204,0.07366464,-0.02184546,0.017135598,0.058325954,0.0016776323,-0.00868094,-0.08222425,-0.09842973,0.09302392,-0.08624277,0.06829054,0.07642553,-0.056697346,-0.0023906678,-0.02958586,0.045072444,0.030082993,-0.07115619,-0.027761623,-0.018398382,0.08853314,-0.0145821795,0.008910969,0.0019514561,0.020314313,-0.023412779,0.047743745,0.018082619,0.08856664,0.03426137,-0.08547115,-0.013689972,-0.041782167,-0.036013387,-0.068695694,-0.059184503,-0.07672403,0.08145755,-0.06578479,-0.06902392,-0.086131334,-0.0038236156,-0.013385251,-0.06488839,-0.019541837,0.09867873,0.07372893,-0.023082778,0.097676046,0.09397859,0.06778932,0.07841439,0.069521196,-0.080858685,-0.011321999,0.057146646,0.026884742,-0.060460426,-0.05635753],[-0.08774076,0.032574438,0.023552418,0.027652763,-0.009057663,0.029558875,-0.06549135,0.08527198,0.021649912,0.028114729,0.030546553,0.03940136,-0.040883016,-0.07787128,-0.09193535,-0.092569664,-0.000010274351,-0.0009088293,-0.03139679,-0.021431997,-0.061527755,-0.033575177,0.05699771,0.007441424,-0.0027856827,0.047267817,-0.09785757,-0.07688947,-0.024505094,-0.0448591,-0.0070554763,0.009357408,0.09070445,0.032196425,0.066356234,-0.0103658885,-0.08203864,0.06410382,0.08814206,0.025784783,-0.053225186,-0.03921325,0.04139576,0.069691665,-0.09225643,-0.038080003,-0.04912455,0.018758558,-0.07519424,0.006938055,-0.08734274,0.0065215826,-0.0048168898,-0.013121203,-0.027116202,-0.0779043,-0.077780485,0.051573522,-0.07136428,0.014544368,0.012486577,0.07331324,-0.020199254,-0.06398864,0.06188319,0.035296656,0.08622759,-0.042551875,0.013852455,-0.09605818,0.05101257,-0.0742393,0.09970822,-0.02383852,-0.05369706,0.040577225,0.058984585,-0.06661413,-0.02125194,-0.04191773],[-0.08999207,-0.0043943375,-0.07444725,0.075007625,0.016018197,-0.080416776,0.03936129,-0.07457981,0.034392305,-0.031632498,0.066207625,-0.04522505,0.066635944,0.07048982,0.09302356,-0.08116174,-0.07932289,-0.052874137,-0.03587325,0.072381906,-0.097959355,-0.09647119,-0.053378966,-0.053201105,-0.07459633,0.009789921,-0.046516087,0.06729286,0.0074764937,0.001202181,-0.070993304,-0.0030695647,0.07802563,0.06524327,-0.012833931,-0.036486506,-0.07665603,-0.039420057,-0.014825866,-0.016371466,0.039147086,-0.05961139,0.08817773,0.09211088,0.009995364,0.04345613,0.08798013,0.08540624,0.06399732,-0.07216628,0.081929155,-0.008954093,0.04601305,-0.041274834,-0.075662255,0.040056013,0.0005239025,0.0051734224,-0.084466,-0.097649,-0.022361353,0.0030966029,-0.0991446,-0.00876949,-0.07734124,0.016751863,0.09690755,-0.09854188,0.09634083,0.013946697,0.060084112,0.018785119,0.008254409,0.0128333345,0.021335982,-0.0989301,0.014139511,-0.07859323,-0.038137626,0.049480088],[0.031510852,-0.07302117,-0.021452427,-0.098127246,-0.09926567,-0.02671311,-0.094203115,-0.01213713,0.026362397,-0.08308258,-0.02208455,0.029564746,-0.023071408,0.07476001,-0.026671052,0.050556682,-0.095628165,-0.06913845,-0.063603684,0.08428555,0.057887726,-0.09204223,0.061489396,-0.052927997,0.07611113,-0.079820774,-0.023115754,-0.08047648,-0.0069934577,-0.005098939,-0.061502434,-0.08741062,0.034959145,-0.050910473,-0.05660665,-0.08520859,-0.029621243,-0.015973449,0.015430905,0.008336782,0.008697465,0.061557896,-0.041482355,-0.08441706,0.06348958,0.03415022,0.073034935,-0.09439688,0.0055339783,0.041318633,0.075538106,-0.057084728,0.001602456,0.09901429,0.060448937,-0.045093846,0.055306338,-0.072140574,-0.0012955442,-0.09275377,0.08401824,-0.08966966,-0.042700984,-0.051539447,0.012174107,-0.044705417,0.08260872,0.019315384,-0.029343009,0.06252629,0.09572256,-0.055520963,-0.06379311,-0.09429317,0.019226767,0.02738776,-0.07326426,0.08353866,-0.029558584,-0.09058352],[-0.051663544,0.06224244,0.06552339,0.015375257,-0.048580766,0.031331725,-0.0013748407,0.0022463799,0.005373575,0.07756274,-0.056346036,-0.051889326,-0.014029123,0.015252493,-0.06457715,0.0033456832,0.077330254,0.05145753,0.076488025,-0.050341297,-0.09429302,-0.04053948,0.0869211,0.08856542,-0.0539953,-0.066512614,-0.061288215,0.036293842,-0.039534666,0.065640695,-0.05204184,-0.029529735,-0.07999225,-0.05511725,0.08580849,0.026219316,-0.028959535,-0.044587135,0.09305634,0.0012958795,-0.09674368,0.055867203,-0.008075163,0.013384007,0.00020766258,0.06221617,0.014059328,-0.016939878,0.009203531,0.01116164,0.07487566,0.08634093,-0.05782559,-0.072272465,-0.019570544,0.0851435,0.08221883,-0.081503294,-0.06343594,-0.037766933,-0.022712208,0.0841332,-0.019640729,-0.07008626,-0.07317767,0.08777211,0.08099096,0.02753649,-0.060940385,-0.05060053,0.003339216,-0.086367205,-0.009777568,-0.090814374,0.07749667,0.06054216,-0.07359226,0.042195685,-0.0123531595,-0.0019372255],[-0.051223733,0.022080302,-0.041975666,-0.047718287,-0.01125095,0.033345945,-0.005493954,-0.060165882,-0.053032782,-0.07552972,-0.07153368,-0.0921664,-0.08307755,-0.076250434,0.02542942,-0.099823736,-0.014668487,0.04294259,0.071414284,-0.044264246,-0.090463854,0.009247519,0.05621081,-0.0877522,-0.08719323,0.04212887,0.08391053,-0.09885307,-0.05826986,0.051682256,0.059433155,-0.028665446,0.033562012,-0.06718056,0.026046611,0.07812255,-0.013320826,-0.09765959,0.04165197,-0.028546356,0.013377883,0.006273411,-0.076804616,0.023463532,-0.034212686,0.03392715,0.062916376,-0.06412385,0.084999375,-0.09606283,-0.066322714,-0.04687209,-0.06278694,0.06326931,0.04018221,-0.0042372197,-0.031013466,-0.019373417,0.081896,-0.030801699,-0.09941278,0.09181286,0.04897537,0.06541965,-0.08415339,0.08193403,0.018271089,-0.05123601,0.02251146,0.0030698031,0.039914854,0.02972848,-0.0011954308,-0.05362728,-0.07664826,0.03171993,0.03363707,0.0062289983,-0.07762184,-0.014792778],[-0.08891225,-0.06639783,-0.08753087,0.03188283,0.015518449,-0.0008972883,0.045522384,0.02764035,0.082410045,-0.017662361,-0.053211045,0.04828649,0.043136843,-0.014843486,-0.06952665,0.098817475,-0.064362384,0.046649747,0.025006779,-0.030346178,0.057035215,0.00029177964,0.058906727,-0.097159244,0.028789975,0.016024068,0.014809176,-0.04748843,-0.08098459,-0.02351465,0.09177341,0.038805462,0.071391635,0.06127622,-0.06870203,0.043003507,-0.08043754,-0.02014935,-0.06457546,0.09331363,-0.0025307909,-0.061197616,-0.006786272,-0.049108386,0.09688728,-0.051995993,0.0025736839,0.0152171105,-0.04062822,-0.093727306,-0.08977165,-0.013577893,0.083093815,-0.013696194,-0.047886897,0.024152204,-0.085275106,-0.06592134,0.06797976,0.098278575,-0.09793597,-0.0707006,-0.05729394,0.079241924,0.03222025,-0.074128225,0.010044932,0.00038862228,0.05287411,-0.017913148,0.060559697,-0.04354894,-0.0017879009,-0.09789908,-0.08814249,0.019273207,0.09561164,0.017645955,-0.089475684,0.002006337],[-0.011004016,-0.054369617,0.05240815,0.020267889,0.03223548,0.08005061,0.019111611,0.022285536,0.021478914,0.0030410066,0.031818204,0.046000607,0.09757609,-0.078110196,0.025280647,-0.08632779,0.06411939,-0.051196456,-0.024505354,-0.07640483,-0.034547523,-0.005173661,-0.09828513,-0.06581254,0.053734206,0.08797207,0.005130984,-0.062310267,0.012859486,0.06995601,0.082152344,0.092751764,0.018465184,0.0670198,-0.06923809,-0.051662993,-0.061115813,-0.06281762,0.06930483,-0.04809287,-0.09874053,0.03654764,-0.036714055,-0.031902716,-0.088979915,-0.021422908,0.04545691,-0.0064647943,0.015933797,-0.08999975,-0.019725084,-0.0712045,-0.052486014,-0.030437633,-0.08340468,0.04493005,0.012035392,0.030560754,0.0541889,0.08074237,0.088635586,-0.052594353,-0.08029642,-0.035284832,0.07966978,0.067310475,0.0071045384,-0.07314553,-0.087453894,0.006123498,0.008266881,-0.03948126,0.08258467,0.077341266,-0.035659887,-0.09020703,0.03417144,-0.025702335,-0.030584738,0.06736045],[-0.051804807,0.07021255,0.045599155,0.08494856,-0.08568986,0.044921376,-0.021587588,-0.007387206,0.099343844,-0.06366637,-0.056901313,-0.055610277,-0.012973785,0.08937163,0.009145811,0.09290948,-0.029720664,0.074348934,-0.06569576,0.06423778,0.053919695,-0.0029502362,-0.0628227,-0.0148088485,-0.0508832,0.047175862,0.0964637,-0.06472991,0.0017753616,-0.012388803,0.077588744,-0.038332343,-0.05131643,0.078253604,-0.015739635,0.06685389,0.0037800074,-0.051473048,-0.04452565,-0.0686508,-0.063023716,0.008104302,-0.036252663,-0.042507794,0.039295413,0.08698187,-0.010657094,-0.043462325,0.05289366,-0.022450782,-0.024256542,0.062262513,-0.0067907125,0.0039985403,0.08891434,-0.07665078,0.060209922,-0.0047878027,0.0066538304,0.08026249,0.043705486,0.005019523,0.06206546,-0.020820856,-0.0636082,0.031188674,-0.07019649,-0.023268245,-0.0019354373,0.078743465,0.07487207,-0.031195857,0.071996994,0.04082053,0.052270778,-0.069042444,0.012719348,-0.019125745,0.03911545,0.012009546],[-0.0755599,0.058323435,0.048924975,-0.0017275065,-0.04815364,-0.058987714,0.071323894,-0.0020863041,-0.05050068,0.05323208,-0.023336247,-0.02398362,0.07612794,-0.03648381,0.030894212,0.0030895919,0.025708802,-0.07906482,-0.008734249,-0.07906799,0.07922209,-0.042223763,-0.026648358,0.02877345,0.05688382,-0.07866371,-0.09933603,-0.08209629,-0.097500585,0.008330345,-0.06664114,-0.002813816,0.09459906,-0.004828453,-0.0952596,0.051535077,0.065940075,-0.07342646,-0.025488138,-0.061340787,-0.015716933,0.047021635,0.01327388,0.013975546,-0.055214096,0.084249265,-0.056708764,-0.059822798,0.020891286,-0.050827004,0.026646264,0.057108067,0.09531834,0.060772084,-0.061377693,-0.0571188,0.026069336,0.045449518,-0.06513874,0.03535714,0.044796728,-0.06585193,-0.07979784,0.07341624,-0.046205666,-0.05574143,0.055180244,-0.01921501,-0.028573155,0.036766,0.06163413,0.050418682,-0.055605866,0.09775839,0.0028521046,-0.086415984,0.070880435,-0.0036582202,0.06605134,0.09318823]],"lstm_discriminator":[[-0.05421562,-0.07730906,-0.09335583,0.07530973,-0.013010882,-0.06657133,-0.09020543,0.043938212,-0.024706818,-0.020586535,-0.0689172,0.078740366,0.049120314,-0.020662352,-0.0003566295,-0.0088798255],[-0.09780281,0.048816033,-0.03940468,-0.030983947,-0.019151375,-0.042082787,-0.011759639,0.048918627,0.045040496,-0.025276802,0.030491494,0.066177495,0.079418086,0.07064236,0.024867535,-0.026332498],[-0.07006989,-0.08112047,0.018842533,-0.06266093,0.0038340092,-0.027888872,0.08028776,-0.06932187,-0.005022861,-0.042748,0.01865258,0.03771413,0.0037725419,0.008098982,0.084015824,-0.078279614],[0.016179487,0.0058487654,-0.072906256,-0.09622653,-0.00055348873,-0.026251197,0.08589471,-0.039083816,0.015210673,0.09461213,0.01466696,-0.067543864,0.002530858,-0.09887359,-0.059326243,0.06093795],[-0.021591567,0.018391035,-0.022077367,0.09412242,-0.084673546,0.046994455,-0.024593115,-0.06161635,-0.03653145,0.0012269244,0.04710176,-0.020334244,0.04840272,0.052830316,-0.06653626,-0.029537842],[0.062200435,-0.07887194,-0.08899575,-0.0015785918,-0.06789112,-0.08827338,0.087391384,0.01523976,-0.0035098046,-0.043958522,0.0379489,-0.045357753,-0.07906814,0.035862096,-0.06426759,0.05931557],[-0.02639272,-0.06486273,0.08532899,0.0783361,0.030296259,-0.026973844,-0.07595642,-0.07266607,0.048114277,0.0669075,-0.09451892,-0.04804349,0.07694317,0.06746342,-0.0099918395,0.09247551],[0.09351175,0.04876571,0.06961923,-0.08821833,-0.09687235,-0.097902015,-0.050566316,-0.022429444,0.023918413,-0.023738123,0.0035713464,0.033626534,-0.017543152,-0.036853552,0.06757917,-0.053502586],[0.098608665,-0.055088997,-0.074119665,-0.022324465,0.0575129,-0.06014481,0.041210152,-0.07678664,-0.06916888,-0.05007143,-0.088441394,0.066267826,-0.01991985,-0.040981557,-0.061057877,-0.04649799],[-0.07245908,-0.07267408,0.029834174,0.01862228,-0.084654115,-0.002383396,-0.03274808,-0.021693304,0.011115953,-0.042209934,-0.00798364,0.04261964,-0.013562821,0.044520162,-0.07894091,-0.095910765],[0.052452065,0.018183753,0.08199575,-0.025866553,-0.07896783,0.08737738,-0.04529841,0.08615751,-0.07336056,0.042561717,0.097272106,0.08060036,0.045159645,0.008382514,-0.038793873,-0.028654262],[0.04688806,-0.06624515,-0.005476117,0.047430284,-0.09951039,0.006502293,0.023316622,-0.015495226,-0.08464356,-0.013343908,0.029016398,0.072097726,0.04333938,0.050229482,0.07750661,-0.08619745],[-0.09818812,0.034584053,-0.03371849,-0.07379677,-0.010024115,0.095539786,0.077413686,0.048989154,-0.02360697,0.028093584,0.05386784,0.07117746,-0.009588793,-0.07066901,0.084528334,-0.090462185],[-0.036667272,0.020544842,0.08196742,-0.076753184,-0.034802392,0.022143222,-0.019903444,-0.030832961,0.025377758,-0.052615907,0.012130357,-0.07036958,-0.07042031,0.022352025,-0.024057984,-0.032480977],[-0.0031902567,0.008979894,-0.012032844,-0.000018283725,-0.07233272,-0.09552288,0.012660742,-0.031275034,-0.057292104,-0.093723945,-0.069284536,0.012918949,-0.08319054,-0.09570279,-0.04095142,0.020241834],[0.06380374,-0.017399214,0.023058988,0.035786368,0.02578599,-0.04233072,-0.07749276,-0.07667558,-0.08291695,0.07611997,-0.003736332,0.024728894,0.025119044,0.09963756,-0.020984508,-0.080133535]]}